#pragma once
#include <cstdarg>
namespace Eloquent {
    namespace ML {
        namespace Port {
            class YesNoClassifier {
                public:
                    /**
                    * Predict class for features vector
                    */
                    int predict(float *x) {
                        uint8_t votes[3] = { 0 };
                        // tree #1
                        if (x[5] <= 1.5726443529129028) {
                            if (x[0] <= -12.764564990997314) {
                                votes[0] += 1;
                            }

                            else {
                                if (x[1] <= 2.699765682220459) {
                                    if (x[6] <= -1.6098922491073608) {
                                        votes[0] += 1;
                                    }

                                    else {
                                        if (x[3] <= 0.636657178401947) {
                                            if (x[8] <= -0.3158178776502609) {
                                                if (x[4] <= -1.9851566851139069) {
                                                    votes[0] += 1;
                                                }

                                                else {
                                                    votes[2] += 1;
                                                }
                                            }

                                            else {
                                                votes[1] += 1;
                                            }
                                        }

                                        else {
                                            votes[1] += 1;
                                        }
                                    }
                                }

                                else {
                                    if (x[8] <= -0.7302199900150299) {
                                        votes[2] += 1;
                                    }

                                    else {
                                        votes[0] += 1;
                                    }
                                }
                            }
                        }

                        else {
                            votes[2] += 1;
                        }

                        // tree #2
                        if (x[6] <= -0.8075042068958282) {
                            if (x[4] <= -1.6045669317245483) {
                                if (x[2] <= -1.308842808008194) {
                                    votes[0] += 1;
                                }

                                else {
                                    votes[1] += 1;
                                }
                            }

                            else {
                                if (x[2] <= -1.9859826564788818) {
                                    votes[0] += 1;
                                }

                                else {
                                    if (x[1] <= 1.985304594039917) {
                                        votes[1] += 1;
                                    }

                                    else {
                                        votes[2] += 1;
                                    }
                                }
                            }
                        }

                        else {
                            votes[1] += 1;
                        }

                        // tree #3
                        if (x[7] <= 0.8706083595752716) {
                            if (x[10] <= -0.5070690214633942) {
                                if (x[3] <= 1.21188622713089) {
                                    votes[2] += 1;
                                }

                                else {
                                    votes[0] += 1;
                                }
                            }

                            else {
                                if (x[5] <= 0.7400887906551361) {
                                    if (x[9] <= 0.42881980538368225) {
                                        votes[1] += 1;
                                    }

                                    else {
                                        votes[0] += 1;
                                    }
                                }

                                else {
                                    votes[1] += 1;
                                }
                            }
                        }

                        else {
                            if (x[5] <= 0.9316180199384689) {
                                votes[0] += 1;
                            }

                            else {
                                if (x[0] <= -11.55469560623169) {
                                    votes[2] += 1;
                                }

                                else {
                                    if (x[4] <= -1.4355712532997131) {
                                        votes[1] += 1;
                                    }

                                    else {
                                        votes[2] += 1;
                                    }
                                }
                            }
                        }

                        // tree #4
                        if (x[1] <= 2.6382346153259277) {
                            if (x[12] <= -0.6370305716991425) {
                                votes[0] += 1;
                            }

                            else {
                                if (x[9] <= 0.2902519404888153) {
                                    if (x[11] <= 0.05521610379219055) {
                                        votes[1] += 1;
                                    }

                                    else {
                                        votes[2] += 1;
                                    }
                                }

                                else {
                                    votes[1] += 1;
                                }
                            }
                        }

                        else {
                            if (x[5] <= 1.194643259048462) {
                                votes[0] += 1;
                            }

                            else {
                                votes[2] += 1;
                            }
                        }

                        // tree #5
                        if (x[6] <= -0.9014619588851929) {
                            if (x[2] <= -1.9859826564788818) {
                                votes[0] += 1;
                            }

                            else {
                                if (x[2] <= -0.5461148023605347) {
                                    if (x[10] <= -0.6472770571708679) {
                                        votes[1] += 1;
                                    }

                                    else {
                                        if (x[5] <= 1.0520332157611847) {
                                            votes[0] += 1;
                                        }

                                        else {
                                            votes[2] += 1;
                                        }
                                    }
                                }

                                else {
                                    votes[1] += 1;
                                }
                            }
                        }

                        else {
                            votes[1] += 1;
                        }

                        // tree #6
                        if (x[2] <= -1.7907763719558716) {
                            votes[0] += 1;
                        }

                        else {
                            if (x[6] <= -1.3423866629600525) {
                                votes[2] += 1;
                            }

                            else {
                                if (x[9] <= 0.4962809681892395) {
                                    if (x[5] <= 0.716434583067894) {
                                        votes[1] += 1;
                                    }

                                    else {
                                        votes[2] += 1;
                                    }
                                }

                                else {
                                    votes[1] += 1;
                                }
                            }
                        }

                        // tree #7
                        if (x[1] <= 2.6382346153259277) {
                            if (x[4] <= -2.3629835844039917) {
                                votes[0] += 1;
                            }

                            else {
                                if (x[3] <= 0.636657178401947) {
                                    if (x[1] <= 1.003746248781681) {
                                        votes[1] += 1;
                                    }

                                    else {
                                        votes[2] += 1;
                                    }
                                }

                                else {
                                    votes[1] += 1;
                                }
                            }
                        }

                        else {
                            if (x[5] <= 1.3030030727386475) {
                                votes[0] += 1;
                            }

                            else {
                                votes[2] += 1;
                            }
                        }

                        // tree #8
                        if (x[5] <= 0.9835065603256226) {
                            if (x[4] <= -1.1489382982254028) {
                                if (x[11] <= -0.032694618217647076) {
                                    votes[1] += 1;
                                }

                                else {
                                    votes[0] += 1;
                                }
                            }

                            else {
                                votes[1] += 1;
                            }
                        }

                        else {
                            if (x[6] <= -1.3423866629600525) {
                                votes[2] += 1;
                            }

                            else {
                                if (x[12] <= -0.27068397402763367) {
                                    if (x[3] <= 1.3766642212867737) {
                                        votes[1] += 1;
                                    }

                                    else {
                                        votes[2] += 1;
                                    }
                                }

                                else {
                                    votes[2] += 1;
                                }
                            }
                        }

                        // tree #9
                        if (x[4] <= -1.47747802734375) {
                            if (x[7] <= 1.1076607704162598) {
                                if (x[8] <= -0.9226925075054169) {
                                    votes[1] += 1;
                                }

                                else {
                                    if (x[2] <= -1.6440207362174988) {
                                        if (x[5] <= 1.5695322155952454) {
                                            votes[0] += 1;
                                        }

                                        else {
                                            votes[2] += 1;
                                        }
                                    }

                                    else {
                                        if (x[0] <= -12.064146041870117) {
                                            votes[1] += 1;
                                        }

                                        else {
                                            votes[2] += 1;
                                        }
                                    }
                                }
                            }

                            else {
                                votes[2] += 1;
                            }
                        }

                        else {
                            if (x[7] <= 0.7573630511760712) {
                                votes[1] += 1;
                            }

                            else {
                                votes[2] += 1;
                            }
                        }

                        // tree #10
                        if (x[1] <= 2.549326539039612) {
                            if (x[9] <= 1.085361897945404) {
                                votes[1] += 1;
                            }

                            else {
                                votes[0] += 1;
                            }
                        }

                        else {
                            if (x[1] <= 3.656849503517151) {
                                votes[2] += 1;
                            }

                            else {
                                if (x[10] <= -0.4588034152984619) {
                                    votes[0] += 1;
                                }

                                else {
                                    votes[2] += 1;
                                }
                            }
                        }

                        // tree #11
                        if (x[6] <= -1.4801568984985352) {
                            if (x[2] <= -2.3463313579559326) {
                                votes[0] += 1;
                            }

                            else {
                                votes[2] += 1;
                            }
                        }

                        else {
                            if (x[1] <= 2.6382346153259277) {
                                if (x[9] <= 1.1661485433578491) {
                                    votes[1] += 1;
                                }

                                else {
                                    votes[0] += 1;
                                }
                            }

                            else {
                                if (x[5] <= 1.3030030727386475) {
                                    votes[0] += 1;
                                }

                                else {
                                    votes[2] += 1;
                                }
                            }
                        }

                        // tree #12
                        if (x[1] <= 2.6382346153259277) {
                            if (x[4] <= -2.423711657524109) {
                                votes[0] += 1;
                            }

                            else {
                                votes[1] += 1;
                            }
                        }

                        else {
                            if (x[7] <= 0.8706083595752716) {
                                votes[0] += 1;
                            }

                            else {
                                votes[2] += 1;
                            }
                        }

                        // tree #13
                        if (x[5] <= 1.4232574701309204) {
                            if (x[2] <= -1.6461014151573181) {
                                votes[0] += 1;
                            }

                            else {
                                votes[1] += 1;
                            }
                        }

                        else {
                            if (x[1] <= 2.499127149581909) {
                                votes[1] += 1;
                            }

                            else {
                                votes[2] += 1;
                            }
                        }

                        // tree #14
                        if (x[2] <= -1.756151258945465) {
                            votes[0] += 1;
                        }

                        else {
                            if (x[2] <= -0.5699916779994965) {
                                votes[2] += 1;
                            }

                            else {
                                if (x[0] <= -5.597136974334717) {
                                    votes[1] += 1;
                                }

                                else {
                                    if (x[6] <= -0.306477427482605) {
                                        votes[2] += 1;
                                    }

                                    else {
                                        votes[1] += 1;
                                    }
                                }
                            }
                        }

                        // tree #15
                        if (x[5] <= 1.57113778591156) {
                            if (x[2] <= -1.6461014151573181) {
                                votes[0] += 1;
                            }

                            else {
                                if (x[5] <= 0.8777805268764496) {
                                    votes[1] += 1;
                                }

                                else {
                                    if (x[12] <= -0.27068397402763367) {
                                        votes[1] += 1;
                                    }

                                    else {
                                        votes[2] += 1;
                                    }
                                }
                            }
                        }

                        else {
                            votes[2] += 1;
                        }

                        // tree #16
                        if (x[2] <= -1.8863771557807922) {
                            votes[0] += 1;
                        }

                        else {
                            if (x[6] <= -1.4801568984985352) {
                                votes[2] += 1;
                            }

                            else {
                                if (x[2] <= -0.8779341578483582) {
                                    if (x[5] <= 1.012456938624382) {
                                        votes[1] += 1;
                                    }

                                    else {
                                        votes[2] += 1;
                                    }
                                }

                                else {
                                    if (x[12] <= -0.27068397402763367) {
                                        votes[1] += 1;
                                    }

                                    else {
                                        if (x[2] <= -0.14387972187250853) {
                                            votes[2] += 1;
                                        }

                                        else {
                                            votes[1] += 1;
                                        }
                                    }
                                }
                            }
                        }

                        // tree #17
                        if (x[4] <= -1.6045669317245483) {
                            if (x[5] <= 1.1600287556648254) {
                                votes[0] += 1;
                            }

                            else {
                                votes[1] += 1;
                            }
                        }

                        else {
                            if (x[2] <= -0.5461148023605347) {
                                if (x[7] <= 0.7209826409816742) {
                                    votes[0] += 1;
                                }

                                else {
                                    votes[2] += 1;
                                }
                            }

                            else {
                                if (x[2] <= -0.25029993802309036) {
                                    if (x[1] <= 2.1377787590026855) {
                                        votes[1] += 1;
                                    }

                                    else {
                                        votes[2] += 1;
                                    }
                                }

                                else {
                                    votes[1] += 1;
                                }
                            }
                        }

                        // tree #18
                        if (x[7] <= 0.8758129775524139) {
                            if (x[3] <= 1.3898394107818604) {
                                if (x[1] <= 2.848618268966675) {
                                    if (x[12] <= -0.6425758004188538) {
                                        votes[0] += 1;
                                    }

                                    else {
                                        if (x[3] <= 0.636657178401947) {
                                            if (x[6] <= -0.32618825137615204) {
                                                votes[2] += 1;
                                            }

                                            else {
                                                votes[1] += 1;
                                            }
                                        }

                                        else {
                                            votes[1] += 1;
                                        }
                                    }
                                }

                                else {
                                    if (x[4] <= -1.359601080417633) {
                                        votes[0] += 1;
                                    }

                                    else {
                                        votes[2] += 1;
                                    }
                                }
                            }

                            else {
                                if (x[11] <= 0.0868823491036892) {
                                    votes[1] += 1;
                                }

                                else {
                                    votes[0] += 1;
                                }
                            }
                        }

                        else {
                            if (x[5] <= 1.5750150084495544) {
                                if (x[1] <= 1.097327534109354) {
                                    votes[0] += 1;
                                }

                                else {
                                    votes[1] += 1;
                                }
                            }

                            else {
                                votes[2] += 1;
                            }
                        }

                        // tree #19
                        if (x[10] <= -0.47797928750514984) {
                            if (x[7] <= 0.8996195495128632) {
                                if (x[5] <= 1.0054009556770325) {
                                    votes[0] += 1;
                                }

                                else {
                                    if (x[11] <= 0.5271283984184265) {
                                        votes[1] += 1;
                                    }

                                    else {
                                        votes[0] += 1;
                                    }
                                }
                            }

                            else {
                                votes[2] += 1;
                            }
                        }

                        else {
                            if (x[10] <= -0.2785479426383972) {
                                if (x[6] <= -1.0884563326835632) {
                                    if (x[8] <= -0.5569786429405212) {
                                        if (x[1] <= 2.80040442943573) {
                                            votes[1] += 1;
                                        }

                                        else {
                                            votes[2] += 1;
                                        }
                                    }

                                    else {
                                        votes[0] += 1;
                                    }
                                }

                                else {
                                    votes[1] += 1;
                                }
                            }

                            else {
                                if (x[12] <= -0.6099137961864471) {
                                    votes[0] += 1;
                                }

                                else {
                                    if (x[5] <= 1.4232574701309204) {
                                        if (x[10] <= -0.1864282786846161) {
                                            if (x[3] <= 0.8035843968391418) {
                                                votes[2] += 1;
                                            }

                                            else {
                                                votes[1] += 1;
                                            }
                                        }

                                        else {
                                            votes[1] += 1;
                                        }
                                    }

                                    else {
                                        if (x[7] <= 0.7191368043422699) {
                                            votes[1] += 1;
                                        }

                                        else {
                                            votes[2] += 1;
                                        }
                                    }
                                }
                            }
                        }

                        // tree #20
                        if (x[5] <= 1.5955964922904968) {
                            if (x[6] <= -0.8991680443286896) {
                                if (x[2] <= -1.4978291392326355) {
                                    votes[0] += 1;
                                }

                                else {
                                    if (x[10] <= -0.424034520983696) {
                                        votes[2] += 1;
                                    }

                                    else {
                                        votes[1] += 1;
                                    }
                                }
                            }

                            else {
                                if (x[7] <= 0.5240611135959625) {
                                    votes[1] += 1;
                                }

                                else {
                                    if (x[3] <= 0.6377438306808472) {
                                        votes[2] += 1;
                                    }

                                    else {
                                        votes[1] += 1;
                                    }
                                }
                            }
                        }

                        else {
                            votes[2] += 1;
                        }

                        // tree #21
                        if (x[2] <= -1.9859826564788818) {
                            votes[0] += 1;
                        }

                        else {
                            if (x[5] <= 1.5735084414482117) {
                                if (x[10] <= -0.1864282786846161) {
                                    if (x[3] <= 0.8602187037467957) {
                                        votes[2] += 1;
                                    }

                                    else {
                                        votes[1] += 1;
                                    }
                                }

                                else {
                                    votes[1] += 1;
                                }
                            }

                            else {
                                votes[2] += 1;
                            }
                        }

                        // tree #22
                        if (x[5] <= 1.5735084414482117) {
                            if (x[1] <= 3.600248098373413) {
                                if (x[9] <= 1.0351331532001495) {
                                    if (x[7] <= 0.7573630511760712) {
                                        if (x[1] <= 2.1443941593170166) {
                                            votes[1] += 1;
                                        }

                                        else {
                                            votes[2] += 1;
                                        }
                                    }

                                    else {
                                        if (x[4] <= -1.325204849243164) {
                                            votes[1] += 1;
                                        }

                                        else {
                                            votes[2] += 1;
                                        }
                                    }
                                }

                                else {
                                    votes[0] += 1;
                                }
                            }

                            else {
                                votes[0] += 1;
                            }
                        }

                        else {
                            votes[2] += 1;
                        }

                        // tree #23
                        if (x[2] <= -0.8779341578483582) {
                            if (x[8] <= -0.635449230670929) {
                                if (x[2] <= -2.2480751276016235) {
                                    votes[0] += 1;
                                }

                                else {
                                    votes[2] += 1;
                                }
                            }

                            else {
                                votes[0] += 1;
                            }
                        }

                        else {
                            if (x[3] <= 1.2420848608016968) {
                                votes[1] += 1;
                            }

                            else {
                                if (x[11] <= 0.48122337460517883) {
                                    votes[1] += 1;
                                }

                                else {
                                    votes[2] += 1;
                                }
                            }
                        }

                        // tree #24
                        if (x[7] <= 0.7659452557563782) {
                            if (x[3] <= 1.3825547099113464) {
                                if (x[2] <= -1.3434679210186005) {
                                    votes[0] += 1;
                                }

                                else {
                                    votes[1] += 1;
                                }
                            }

                            else {
                                votes[0] += 1;
                            }
                        }

                        else {
                            if (x[1] <= 2.6382346153259277) {
                                if (x[3] <= 0.7424410879611969) {
                                    votes[0] += 1;
                                }

                                else {
                                    votes[1] += 1;
                                }
                            }

                            else {
                                votes[2] += 1;
                            }
                        }

                        // tree #25
                        if (x[6] <= -1.3423866629600525) {
                            if (x[1] <= 2.80040442943573) {
                                if (x[3] <= 0.5796878831461072) {
                                    votes[0] += 1;
                                }

                                else {
                                    votes[1] += 1;
                                }
                            }

                            else {
                                votes[2] += 1;
                            }
                        }

                        else {
                            if (x[2] <= -1.390596479177475) {
                                votes[0] += 1;
                            }

                            else {
                                if (x[7] <= 0.810307651758194) {
                                    if (x[11] <= 0.31450222432613373) {
                                        if (x[10] <= -0.1864282786846161) {
                                            votes[2] += 1;
                                        }

                                        else {
                                            votes[1] += 1;
                                        }
                                    }

                                    else {
                                        votes[1] += 1;
                                    }
                                }

                                else {
                                    votes[2] += 1;
                                }
                            }
                        }

                        // tree #26
                        if (x[2] <= -1.756151258945465) {
                            if (x[5] <= 1.485921859741211) {
                                votes[0] += 1;
                            }

                            else {
                                votes[2] += 1;
                            }
                        }

                        else {
                            if (x[12] <= -0.5058448910713196) {
                                if (x[1] <= 2.769601345062256) {
                                    votes[1] += 1;
                                }

                                else {
                                    votes[2] += 1;
                                }
                            }

                            else {
                                if (x[1] <= 2.4708127975463867) {
                                    votes[1] += 1;
                                }

                                else {
                                    votes[2] += 1;
                                }
                            }
                        }

                        // tree #27
                        if (x[7] <= 0.7659452557563782) {
                            if (x[1] <= 2.681242346763611) {
                                if (x[4] <= -2.3629835844039917) {
                                    votes[0] += 1;
                                }

                                else {
                                    votes[1] += 1;
                                }
                            }

                            else {
                                votes[0] += 1;
                            }
                        }

                        else {
                            if (x[2] <= -2.1890660524368286) {
                                votes[0] += 1;
                            }

                            else {
                                if (x[2] <= -0.5699916779994965) {
                                    votes[2] += 1;
                                }

                                else {
                                    votes[1] += 1;
                                }
                            }
                        }

                        // tree #28
                        if (x[5] <= 1.3866472244262695) {
                            if (x[4] <= -1.3953092694282532) {
                                if (x[0] <= -6.404907703399658) {
                                    if (x[10] <= -0.6509255468845367) {
                                        votes[1] += 1;
                                    }

                                    else {
                                        if (x[2] <= -1.1144047230482101) {
                                            votes[0] += 1;
                                        }

                                        else {
                                            votes[1] += 1;
                                        }
                                    }
                                }

                                else {
                                    votes[1] += 1;
                                }
                            }

                            else {
                                votes[1] += 1;
                            }
                        }

                        else {
                            votes[2] += 1;
                        }

                        // tree #29
                        if (x[12] <= -0.47430838644504547) {
                            if (x[0] <= -14.507031440734863) {
                                votes[0] += 1;
                            }

                            else {
                                if (x[5] <= 1.5735084414482117) {
                                    if (x[5] <= 1.0081550478935242) {
                                        if (x[8] <= -0.6750525236129761) {
                                            votes[1] += 1;
                                        }

                                        else {
                                            votes[0] += 1;
                                        }
                                    }

                                    else {
                                        if (x[6] <= -1.3785600662231445) {
                                            votes[2] += 1;
                                        }

                                        else {
                                            votes[1] += 1;
                                        }
                                    }
                                }

                                else {
                                    votes[2] += 1;
                                }
                            }
                        }

                        else {
                            if (x[1] <= 2.116079807281494) {
                                votes[1] += 1;
                            }

                            else {
                                votes[2] += 1;
                            }
                        }

                        // tree #30
                        if (x[5] <= 1.57113778591156) {
                            if (x[7] <= 0.5725931525230408) {
                                if (x[10] <= -0.32698312401771545) {
                                    if (x[4] <= -1.9634976387023926) {
                                        votes[1] += 1;
                                    }

                                    else {
                                        votes[0] += 1;
                                    }
                                }

                                else {
                                    votes[1] += 1;
                                }
                            }

                            else {
                                if (x[5] <= 1.204116940498352) {
                                    if (x[0] <= -7.090293884277344) {
                                        votes[0] += 1;
                                    }

                                    else {
                                        votes[1] += 1;
                                    }
                                }

                                else {
                                    votes[1] += 1;
                                }
                            }
                        }

                        else {
                            votes[2] += 1;
                        }

                        // return argmax of votes
                        uint8_t classIdx = 0;
                        float maxVotes = votes[0];

                        for (uint8_t i = 1; i < 3; i++) {
                            if (votes[i] > maxVotes) {
                                classIdx = i;
                                maxVotes = votes[i];
                            }
                        }

                        return classIdx;
                    }

                protected:
                };
            }
        }
    }